<?xml version="1.0"?>
<opencv_storage>
<cascade>
  <stageType>BOOST</stageType>
  <featureType>HAAR</featureType>
  <height>20</height>
  <width>20</width>
  <stageParams>
    <boostType>GAB</boostType>
    <minHitRate>9.9500000476837158e-01</minHitRate>
    <maxFalseAlarm>5.0000000000000000e-01</maxFalseAlarm>
    <weightTrimRate>9.4999999999999996e-01</weightTrimRate>
    <maxDepth>1</maxDepth>
    <maxWeakCount>100</maxWeakCount></stageParams>
  <featureParams>
    <maxCatCount>0</maxCatCount>
    <featSize>1</featSize>
    <mode>BASIC</mode></featureParams>
  <stageNum>10</stageNum>
  <stages>
    <!-- stage 0 -->
    <_>
      <maxWeakCount>4</maxWeakCount>
      <stageThreshold>-8.4175878763198853e-01</stageThreshold>
      <weakClassifiers>
        <_>
          <internalNodes>
            0 -1 23 -1.4328069984912872e-02</internalNodes>
          <leafValues>
            7.4597495794296265e-01 -8.7434554100036621e-01</leafValues></_>
        <_>
          <internalNodes>
            0 -1 35 -1.8420694395899773e-03</internalNodes>
          <leafValues>
            6.2609767913818359e-01 -6.7608416080474854e-01</leafValues></_>
        <_>
          <internalNodes>
            0 -1 85 -1.3114238157868385e-02</internalNodes>
          <leafValues>
            7.2904980182647705e-01 -5.1420497894287109e-01</leafValues></_>
        <_>
          <internalNodes>
            0 -1 17 4.3456740677356720e-03</internalNodes>
          <leafValues>
            -3.9744466543197632e-01 6.7687189579010010e-01</leafValues></_></weakClassifiers></_>
    <!-- stage 1 -->
    <_>
      <maxWeakCount>7</maxWeakCount>
      <stageThreshold>-5.7589703798294067e-01</stageThreshold>
      <weakClassifiers>
        <_>
          <internalNodes>
            0 -1 67 1.0884415358304977e-02</internalNodes>
          <leafValues>
            -3.3559322357177734e-01 7.6703298091888428e-01</leafValues></_>
        <_>
          <internalNodes>
            0 -1 18 1.1845661792904139e-03</internalNodes>
          <leafValues>
            -5.9772127866744995e-01 5.5737239122390747e-01</leafValues></_>
        <_>
          <internalNodes>
            0 -1 36 8.9004123583436012e-03</internalNodes>
          <leafValues>
            -3.7995791435241699e-01 6.1823374032974243e-01</leafValues></_>
        <_>
          <internalNodes>
            0 -1 45 -7.0950444787740707e-03</internalNodes>
          <leafValues>
            4.8897120356559753e-01 -4.3015944957733154e-01</leafValues></_>
        <_>
          <internalNodes>
            0 -1 9 -1.3091295957565308e-01</internalNodes>
          <leafValues>
            5.9544402360916138e-01 -4.0261542797088623e-01</leafValues></_>
        <_>
          <internalNodes>
            0 -1 60 -3.3049090416170657e-04</internalNodes>
          <leafValues>
            4.3658673763275146e-01 -5.6476461887359619e-01</leafValues></_>
        <_>
          <internalNodes>
            0 -1 72 -2.8543223161250353e-03</internalNodes>
          <leafValues>
            2.1443283557891846e-01 -7.6427376270294189e-01</leafValues></_></weakClassifiers></_>
    <!-- stage 2 -->
    <_>
      <maxWeakCount>8</maxWeakCount>
      <stageThreshold>-8.8287079334259033e-01</stageThreshold>
      <weakClassifiers>
        <_>
          <internalNodes>
            0 -1 51 1.5326717868447304e-02</internalNodes>
          <leafValues>
            -2.6567164063453674e-01 8.1686747074127197e-01</leafValues></_>
        <_>
          <internalNodes>
            0 -1 10 3.6024011205881834e-03</internalNodes>
          <leafValues>
            -3.3824297785758972e-01 6.3119435310363770e-01</leafValues></_>
        <_>
          <internalNodes>
            0 -1 15 1.2389855459332466e-02</internalNodes>
          <leafValues>
            -3.0031585693359375e-01 7.2674399614334106e-01</leafValues></_>
        <_>
          <internalNodes>
            0 -1 69 8.3744747098535299e-04</internalNodes>
          <leafValues>
            -5.4470980167388916e-01 4.1724881529808044e-01</leafValues></_>
        <_>
          <internalNodes>
            0 -1 20 -1.0932723525911570e-03</internalNodes>
          <leafValues>
            2.9065918922424316e-01 -7.2039794921875000e-01</leafValues></_>
        <_>
          <internalNodes>
            0 -1 80 -3.7032933323644102e-04</internalNodes>
          <leafValues>
            2.1942736208438873e-01 -7.8253853321075439e-01</leafValues></_>
        <_>
          <internalNodes>
            0 -1 54 3.9783032843843102e-04</internalNodes>
          <leafValues>
            -4.5229268074035645e-01 4.6536478400230408e-01</leafValues></_>
        <_>
          <internalNodes>
            0 -1 47 -1.8592650070786476e-02</internalNodes>
          <leafValues>
            5.0827556848526001e-01 -3.4769409894943237e-01</leafValues></_></weakClassifiers></_>
    <!-- stage 3 -->
    <_>
      <maxWeakCount>8</maxWeakCount>
      <stageThreshold>-7.3719233274459839e-01</stageThreshold>
      <weakClassifiers>
        <_>
          <internalNodes>
            0 -1 40 1.5109941596165299e-03</internalNodes>
          <leafValues>
            -4.4497609138488770e-01 6.3401108980178833e-01</leafValues></_>
        <_>
          <internalNodes>
            0 -1 62 4.8381108790636063e-03</internalNodes>
          <leafValues>
            -4.5558822154998779e-01 5.5440467596054077e-01</leafValues></_>
        <_>
          <internalNodes>
            0 -1 28 7.5787724927067757e-03</internalNodes>
          <leafValues>
            -2.5710213184356689e-01 7.9171514511108398e-01</leafValues></_>
        <_>
          <internalNodes>
            0 -1 65 -1.8310528248548508e-03</internalNodes>
          <leafValues>
            5.6302875280380249e-01 -3.0802610516548157e-01</leafValues></_>
        <_>
          <internalNodes>
            0 -1 83 9.8703370895236731e-04</internalNodes>
          <leafValues>
            -5.5214101076126099e-01 3.0758288502693176e-01</leafValues></_>
        <_>
          <internalNodes>
            0 -1 59 -4.1743600741028786e-03</internalNodes>
          <leafValues>
            2.5569197535514832e-01 -6.8511354923248291e-01</leafValues></_>
        <_>
          <internalNodes>
            0 -1 42 -4.2165740160271525e-04</internalNodes>
          <leafValues>
            4.3201246857643127e-01 -3.8394847512245178e-01</leafValues></_>
        <_>
          <internalNodes>
            0 -1 58 -2.9437169432640076e-03</internalNodes>
          <leafValues>
            6.0791850090026855e-01 -2.7811807394027710e-01</leafValues></_></weakClassifiers></_>
    <!-- stage 4 -->
    <_>
      <maxWeakCount>9</maxWeakCount>
      <stageThreshold>-5.9492659568786621e-01</stageThreshold>
      <weakClassifiers>
        <_>
          <internalNodes>
            0 -1 8 2.2959916386753321e-03</internalNodes>
          <leafValues>
            -4.2564103007316589e-01 6.0000002384185791e-01</leafValues></_>
        <_>
          <internalNodes>
            0 -1 88 -2.2627734579145908e-03</internalNodes>
          <leafValues>
            5.1745176315307617e-01 -4.2184734344482422e-01</leafValues></_>
        <_>
          <internalNodes>
            0 -1 33 9.7063025459647179e-03</internalNodes>
          <leafValues>
            -3.5502955317497253e-01 5.1540261507034302e-01</leafValues></_>
        <_>
          <internalNodes>
            0 -1 68 -3.0929488129913807e-03</internalNodes>
          <leafValues>
            3.4884369373321533e-01 -4.9314877390861511e-01</leafValues></_>
        <_>
          <internalNodes>
            0 -1 26 -1.3711841311305761e-03</internalNodes>
          <leafValues>
            4.7859299182891846e-01 -4.1338422894477844e-01</leafValues></_>
        <_>
          <internalNodes>
            0 -1 3 -1.1552800983190536e-01</internalNodes>
          <leafValues>
            5.9565442800521851e-01 -3.3228564262390137e-01</leafValues></_>
        <_>
          <internalNodes>
            0 -1 31 -2.4799194186925888e-02</internalNodes>
          <leafValues>
            -8.0805188417434692e-01 2.2082053124904633e-01</leafValues></_>
        <_>
          <internalNodes>
            0 -1 46 7.6196053996682167e-03</internalNodes>
          <leafValues>
            -4.5919981598854065e-01 4.3183913826942444e-01</leafValues></_>
        <_>
          <internalNodes>
            0 -1 19 1.2808402243535966e-04</internalNodes>
          <leafValues>
            -4.8266863822937012e-01 3.0349767208099365e-01</leafValues></_></weakClassifiers></_>
    <!-- stage 5 -->
    <_>
      <maxWeakCount>10</maxWeakCount>
      <stageThreshold>-5.8921080827713013e-01</stageThreshold>
      <weakClassifiers>
        <_>
          <internalNodes>
            0 -1 41 8.3982320502400398e-03</internalNodes>
          <leafValues>
            -5.1249998807907104e-01 5.6271183490753174e-01</leafValues></_>
        <_>
          <internalNodes>
            0 -1 5 2.2586198523640633e-02</internalNodes>
          <leafValues>
            -5.5276447534561157e-01 3.6539238691329956e-01</leafValues></_>
        <_>
          <internalNodes>
            0 -1 43 -2.6520849205553532e-03</internalNodes>
          <leafValues>
            4.1416957974433899e-01 -4.8142206668853760e-01</leafValues></_>
        <_>
          <internalNodes>
            0 -1 12 2.3201617877930403e-03</internalNodes>
          <leafValues>
            -3.5201907157897949e-01 4.7997385263442993e-01</leafValues></_>
        <_>
          <internalNodes>
            0 -1 22 -2.5309496559202671e-03</internalNodes>
          <leafValues>
            1.8921859562397003e-01 -8.0238145589828491e-01</leafValues></_>
        <_>
          <internalNodes>
            0 -1 38 -4.5017832890152931e-03</internalNodes>
          <leafValues>
            6.0150247812271118e-01 -2.6067683100700378e-01</leafValues></_>
        <_>
          <internalNodes>
            0 -1 1 2.2869887761771679e-03</internalNodes>
          <leafValues>
            -2.3980443179607391e-01 6.8546575307846069e-01</leafValues></_>
        <_>
          <internalNodes>
            0 -1 81 1.7333449795842171e-03</internalNodes>
          <leafValues>
            -3.3697700500488281e-01 4.3460926413536072e-01</leafValues></_>
        <_>
          <internalNodes>
            0 -1 13 7.2009712457656860e-02</internalNodes>
          <leafValues>
            1.8238332867622375e-01 -8.6710953712463379e-01</leafValues></_>
        <_>
          <internalNodes>
            0 -1 76 3.4925530198961496e-03</internalNodes>
          <leafValues>
            1.4158557355403900e-01 -9.2136043310165405e-01</leafValues></_></weakClassifiers></_>
    <!-- stage 6 -->
    <_>
      <maxWeakCount>11</maxWeakCount>
      <stageThreshold>-9.2660444974899292e-01</stageThreshold>
      <weakClassifiers>
        <_>
          <internalNodes>
            0 -1 34 -1.2010858335997909e-04</internalNodes>
          <leafValues>
            5.0473183393478394e-01 -6.0344827175140381e-01</leafValues></_>
        <_>
          <internalNodes>
            0 -1 56 5.7357393205165863e-02</internalNodes>
          <leafValues>
            -3.7347382307052612e-01 5.2503329515457153e-01</leafValues></_>
        <_>
          <internalNodes>
            0 -1 70 2.9302448965609074e-03</internalNodes>
          <leafValues>
            1.8491981923580170e-01 -8.4061855077743530e-01</leafValues></_>
        <_>
          <internalNodes>
            0 -1 2 1.3013169169425964e-02</internalNodes>
          <leafValues>
            -2.3850826919078827e-01 6.3183027505874634e-01</leafValues></_>
        <_>
          <internalNodes>
            0 -1 61 -1.0310356738045812e-03</internalNodes>
          <leafValues>
            -8.7064737081527710e-01 1.4657026529312134e-01</leafValues></_>
        <_>
          <internalNodes>
            0 -1 55 -1.8759410595521331e-03</internalNodes>
          <leafValues>
            5.8992063999176025e-01 -2.7144464850425720e-01</leafValues></_>
        <_>
          <internalNodes>
            0 -1 27 6.0888717416673899e-04</internalNodes>
          <leafValues>
            -3.0544698238372803e-01 4.8012414574623108e-01</leafValues></_>
        <_>
          <internalNodes>
            0 -1 74 1.3470407575368881e-02</internalNodes>
          <leafValues>
            -2.7048367261886597e-01 5.0501519441604614e-01</leafValues></_>
        <_>
          <internalNodes>
            0 -1 78 1.4632965903729200e-03</internalNodes>
          <leafValues>
            -3.5021385550498962e-01 4.2464891076087952e-01</leafValues></_>
        <_>
          <internalNodes>
            0 -1 7 -3.2650381326675415e-02</internalNodes>
          <leafValues>
            -9.1226214170455933e-01 1.6546969115734100e-01</leafValues></_>
        <_>
          <internalNodes>
            0 -1 50 1.5152618288993835e-03</internalNodes>
          <leafValues>
            1.2363006174564362e-01 -9.1990256309509277e-01</leafValues></_></weakClassifiers></_>
    <!-- stage 7 -->
    <_>
      <maxWeakCount>11</maxWeakCount>
      <stageThreshold>-7.3545116186141968e-01</stageThreshold>
      <weakClassifiers>
        <_>
          <internalNodes>
            0 -1 48 3.1236137729138136e-03</internalNodes>
          <leafValues>
            -3.0044841766357422e-01 6.0151803493499756e-01</leafValues></_>
        <_>
          <internalNodes>
            0 -1 64 4.2100963764823973e-04</internalNodes>
          <leafValues>
            -4.0411996841430664e-01 3.9000418782234192e-01</leafValues></_>
        <_>
          <internalNodes>
            0 -1 14 1.0650164447724819e-02</internalNodes>
          <leafValues>
            -2.5840523838996887e-01 5.5844724178314209e-01</leafValues></_>
        <_>
          <internalNodes>
            0 -1 86 2.4144444614648819e-04</internalNodes>
          <leafValues>
            -4.4391217827796936e-01 3.2148477435112000e-01</leafValues></_>
        <_>
          <internalNodes>
            0 -1 16 -3.4733504056930542e-02</internalNodes>
          <leafValues>
            -9.5818859338760376e-01 1.0902736335992813e-01</leafValues></_>
        <_>
          <internalNodes>
            0 -1 73 -1.3249097391963005e-02</internalNodes>
          <leafValues>
            -8.6814713478088379e-01 1.2784124910831451e-01</leafValues></_>
        <_>
          <internalNodes>
            0 -1 66 1.3247781898826361e-03</internalNodes>
          <leafValues>
            -3.7239193916320801e-01 4.0001791715621948e-01</leafValues></_>
        <_>
          <internalNodes>
            0 -1 63 9.4847171567380428e-04</internalNodes>
          <leafValues>
            -5.5555671453475952e-01 3.0559945106506348e-01</leafValues></_>
        <_>
          <internalNodes>
            0 -1 44 5.5405264720320702e-03</internalNodes>
          <leafValues>
            -3.4701883792877197e-01 4.3094402551651001e-01</leafValues></_>
        <_>
          <internalNodes>
            0 -1 53 -7.3229791596531868e-03</internalNodes>
          <leafValues>
            -8.4227508306503296e-01 2.0666491985321045e-01</leafValues></_>
        <_>
          <internalNodes>
            0 -1 25 -3.5972386598587036e-02</internalNodes>
          <leafValues>
            -8.4872257709503174e-01 1.1856546252965927e-01</leafValues></_></weakClassifiers></_>
    <!-- stage 8 -->
    <_>
      <maxWeakCount>13</maxWeakCount>
      <stageThreshold>-6.9685405492782593e-01</stageThreshold>
      <weakClassifiers>
        <_>
          <internalNodes>
            0 -1 32 3.2694763503968716e-03</internalNodes>
          <leafValues>
            -2.9648241400718689e-01 5.6079852581024170e-01</leafValues></_>
        <_>
          <internalNodes>
            0 -1 57 7.7712456695735455e-03</internalNodes>
          <leafValues>
            -4.0891039371490479e-01 3.7369540333747864e-01</leafValues></_>
        <_>
          <internalNodes>
            0 -1 24 -7.8151479829102755e-04</internalNodes>
          <leafValues>
            2.3613002896308899e-01 -5.2384763956069946e-01</leafValues></_>
        <_>
          <internalNodes>
            0 -1 11 3.9712250232696533e-02</internalNodes>
          <leafValues>
            1.5081678330898285e-01 -8.6785995960235596e-01</leafValues></_>
        <_>
          <internalNodes>
            0 -1 79 3.0202770722098649e-04</internalNodes>
          <leafValues>
            1.4049780368804932e-01 -6.9373136758804321e-01</leafValues></_>
        <_>
          <internalNodes>
            0 -1 71 -1.9672254100441933e-02</internalNodes>
          <leafValues>
            -6.2430965900421143e-01 1.8018120527267456e-01</leafValues></_>
        <_>
          <internalNodes>
            0 -1 49 -1.9974263384938240e-02</internalNodes>
          <leafValues>
            2.0279669761657715e-01 -6.5682297945022583e-01</leafValues></_>
        <_>
          <internalNodes>
            0 -1 37 1.5821465058252215e-03</internalNodes>
          <leafValues>
            -2.8427070379257202e-01 4.7268784046173096e-01</leafValues></_>
        <_>
          <internalNodes>
            0 -1 29 2.5948605034500360e-03</internalNodes>
          <leafValues>
            -2.2866351902484894e-01 5.4797101020812988e-01</leafValues></_>
        <_>
          <internalNodes>
            0 -1 4 -1.1080333031713963e-02</internalNodes>
          <leafValues>
            2.5238499045372009e-01 -4.9158108234405518e-01</leafValues></_>
        <_>
          <internalNodes>
            0 -1 77 -1.8303395481780171e-03</internalNodes>
          <leafValues>
            -8.0883383750915527e-01 1.2696246802806854e-01</leafValues></_>
        <_>
          <internalNodes>
            0 -1 89 -4.4437246397137642e-03</internalNodes>
          <leafValues>
            5.1257199048995972e-01 -2.4431098997592926e-01</leafValues></_>
        <_>
          <internalNodes>
            0 -1 0 1.1565756052732468e-02</internalNodes>
          <leafValues>
            -2.5985357165336609e-01 4.5382905006408691e-01</leafValues></_></weakClassifiers></_>
    <!-- stage 9 -->
    <_>
      <maxWeakCount>10</maxWeakCount>
      <stageThreshold>-6.8539160490036011e-01</stageThreshold>
      <weakClassifiers>
        <_>
          <internalNodes>
            0 -1 87 -8.5861608386039734e-03</internalNodes>
          <leafValues>
            7.3451328277587891e-01 2.4330900050699711e-03</leafValues></_>
        <_>
          <internalNodes>
            0 -1 39 1.2027064338326454e-02</internalNodes>
          <leafValues>
            -1.9992332160472870e-01 6.5625357627868652e-01</leafValues></_>
        <_>
          <internalNodes>
            0 -1 30 -1.3174282386898994e-02</internalNodes>
          <leafValues>
            4.5371600985527039e-01 -3.5313284397125244e-01</leafValues></_>
        <_>
          <internalNodes>
            0 -1 82 -1.9396089192014188e-04</internalNodes>
          <leafValues>
            3.3459475636482239e-01 -4.7119581699371338e-01</leafValues></_>
        <_>
          <internalNodes>
            0 -1 21 -7.4998037889599800e-03</internalNodes>
          <leafValues>
            4.3784439563751221e-01 -2.9794791340827942e-01</leafValues></_>
        <_>
          <internalNodes>
            0 -1 55 4.0802387520670891e-03</internalNodes>
          <leafValues>
            -1.6415141522884369e-01 7.5887846946716309e-01</leafValues></_>
        <_>
          <internalNodes>
            0 -1 6 -2.4664169177412987e-03</internalNodes>
          <leafValues>
            4.5790794491767883e-01 -3.0419784784317017e-01</leafValues></_>
        <_>
          <internalNodes>
            0 -1 52 8.8406086433678865e-04</internalNodes>
          <leafValues>
            -2.6229387521743774e-01 5.1443076133728027e-01</leafValues></_>
        <_>
          <internalNodes>
            0 -1 84 2.9741423204541206e-03</internalNodes>
          <leafValues>
            -5.9089660644531250e-01 2.5515252351760864e-01</leafValues></_>
        <_>
          <internalNodes>
            0 -1 75 -6.5526214893907309e-04</internalNodes>
          <leafValues>
            3.7234142422676086e-01 -3.9819318056106567e-01</leafValues></_></weakClassifiers></_></stages>
  <features>
    <_>
      <rects>
        <_>
          0 5 6 6 -1.</_>
        <_>
          2 5 2 6 3.</_></rects>
      <tilted>0</tilted></_>
    <_>
      <rects>
        <_>
          0 7 2 2 -1.</_>
        <_>
          1 7 1 2 2.</_></rects>
      <tilted>0</tilted></_>
    <_>
      <rects>
        <_>
          0 7 4 4 -1.</_>
        <_>
          2 7 2 4 2.</_></rects>
      <tilted>0</tilted></_>
    <_>
      <rects>
        <_>
          1 5 8 12 -1.</_>
        <_>
          1 11 8 6 2.</_></rects>
      <tilted>0</tilted></_>
    <_>
      <rects>
        <_>
          1 6 17 4 -1.</_>
        <_>
          1 8 17 2 2.</_></rects>
      <tilted>0</tilted></_>
    <_>
      <rects>
        <_>
          2 2 18 3 -1.</_>
        <_>
          8 2 6 3 3.</_></rects>
      <tilted>0</tilted></_>
    <_>
      <rects>
        <_>
          2 5 6 2 -1.</_>
        <_>
          2 5 3 1 2.</_>
        <_>
          5 6 3 1 2.</_></rects>
      <tilted>0</tilted></_>
    <_>
      <rects>
        <_>
          3 2 12 7 -1.</_>
        <_>
          9 2 6 7 2.</_></rects>
      <tilted>0</tilted></_>
    <_>
      <rects>
        <_>
          3 3 6 2 -1.</_>
        <_>
          6 3 3 2 2.</_></rects>
      <tilted>0</tilted></_>
    <_>
      <rects>
        <_>
          3 4 6 16 -1.</_>
        <_>
          3 12 6 8 2.</_></rects>
      <tilted>0</tilted></_>
    <_>
      <rects>
        <_>
          4 5 6 4 -1.</_>
        <_>
          4 5 3 2 2.</_>
        <_>
          7 7 3 2 2.</_></rects>
      <tilted>0</tilted></_>
    <_>
      <rects>
        <_>
          4 5 16 2 -1.</_>
        <_>
          12 5 8 2 2.</_></rects>
      <tilted>0</tilted></_>
    <_>
      <rects>
        <_>
          4 7 2 8 -1.</_>
        <_>
          4 7 1 4 2.</_>
        <_>
          5 11 1 4 2.</_></rects>
      <tilted>0</tilted></_>
    <_>
      <rects>
        <_>
          5 4 14 5 -1.</_>
        <_>
          12 4 7 5 2.</_></rects>
      <tilted>0</tilted></_>
    <_>
      <rects>
        <_>
          5 6 6 3 -1.</_>
        <_>
          7 6 2 3 3.</_></rects>
      <tilted>0</tilted></_>
    <_>
      <rects>
        <_>
          6 1 12 2 -1.</_>
        <_>
          6 2 12 1 2.</_></rects>
      <tilted>0</tilted></_>
    <_>
      <rects>
        <_>
          6 2 4 6 -1.</_>
        <_>
          6 5 4 3 2.</_></rects>
      <tilted>0</tilted></_>
    <_>
      <rects>
        <_>
          6 2 7 2 -1.</_>
        <_>
          6 3 7 1 2.</_></rects>
      <tilted>0</tilted></_>
    <_>
      <rects>
        <_>
          6 3 4 1 -1.</_>
        <_>
          8 3 2 1 2.</_></rects>
      <tilted>0</tilted></_>
    <_>
      <rects>
        <_>
          6 4 2 1 -1.</_>
        <_>
          7 4 1 1 2.</_></rects>
      <tilted>0</tilted></_>
    <_>
      <rects>
        <_>
          6 4 3 6 -1.</_>
        <_>
          6 7 3 3 2.</_></rects>
      <tilted>0</tilted></_>
    <_>
      <rects>
        <_>
          6 15 6 4 -1.</_>
        <_>
          6 15 3 2 2.</_>
        <_>
          9 17 3 2 2.</_></rects>
      <tilted>0</tilted></_>
    <_>
      <rects>
        <_>
          7 3 4 6 -1.</_>
        <_>
          7 6 4 3 2.</_></rects>
      <tilted>0</tilted></_>
    <_>
      <rects>
        <_>
          7 3 8 8 -1.</_>
        <_>
          7 7 8 4 2.</_></rects>
      <tilted>0</tilted></_>
    <_>
      <rects>
        <_>
          7 4 2 2 -1.</_>
        <_>
          7 5 2 1 2.</_></rects>
      <tilted>0</tilted></_>
    <_>
      <rects>
        <_>
          7 4 4 6 -1.</_>
        <_>
          7 7 4 3 2.</_></rects>
      <tilted>0</tilted></_>
    <_>
      <rects>
        <_>
          7 5 2 3 -1.</_>
        <_>
          7 6 2 1 3.</_></rects>
      <tilted>0</tilted></_>
    <_>
      <rects>
        <_>
          7 7 3 1 -1.</_>
        <_>
          8 7 1 1 3.</_></rects>
      <tilted>0</tilted></_>
    <_>
      <rects>
        <_>
          7 7 3 3 -1.</_>
        <_>
          7 8 3 1 3.</_></rects>
      <tilted>0</tilted></_>
    <_>
      <rects>
        <_>
          7 7 4 2 -1.</_>
        <_>
          7 8 4 1 2.</_></rects>
      <tilted>0</tilted></_>
    <_>
      <rects>
        <_>
          7 8 4 6 -1.</_>
        <_>
          7 10 4 2 3.</_></rects>
      <tilted>0</tilted></_>
    <_>
      <rects>
        <_>
          8 2 2 8 -1.</_>
        <_>
          8 6 2 4 2.</_></rects>
      <tilted>0</tilted></_>
    <_>
      <rects>
        <_>
          8 2 3 3 -1.</_>
        <_>
          8 3 3 1 3.</_></rects>
      <tilted>0</tilted></_>
    <_>
      <rects>
        <_>
          8 2 5 3 -1.</_>
        <_>
          8 3 5 1 3.</_></rects>
      <tilted>0</tilted></_>
    <_>
      <rects>
        <_>
          8 4 2 2 -1.</_>
        <_>
          8 5 2 1 2.</_></rects>
      <tilted>0</tilted></_>
    <_>
      <rects>
        <_>
          8 4 3 2 -1.</_>
        <_>
          8 5 3 1 2.</_></rects>
      <tilted>0</tilted></_>
    <_>
      <rects>
        <_>
          8 5 2 6 -1.</_>
        <_>
          8 7 2 2 3.</_></rects>
      <tilted>0</tilted></_>
    <_>
      <rects>
        <_>
          8 6 3 1 -1.</_>
        <_>
          9 6 1 1 3.</_></rects>
      <tilted>0</tilted></_>
    <_>
      <rects>
        <_>
          8 14 2 6 -1.</_>
        <_>
          8 14 1 3 2.</_>
        <_>
          9 17 1 3 2.</_></rects>
      <tilted>0</tilted></_>
    <_>
      <rects>
        <_>
          9 1 5 2 -1.</_>
        <_>
          9 2 5 1 2.</_></rects>
      <tilted>0</tilted></_>
    <_>
      <rects>
        <_>
          9 2 2 3 -1.</_>
        <_>
          9 3 2 1 3.</_></rects>
      <tilted>0</tilted></_>
    <_>
      <rects>
        <_>
          9 5 8 6 -1.</_>
        <_>
          13 5 4 6 2.</_></rects>
      <tilted>0</tilted></_>
    <_>
      <rects>
        <_>
          9 6 2 1 -1.</_>
        <_>
          10 6 1 1 2.</_></rects>
      <tilted>0</tilted></_>
    <_>
      <rects>
        <_>
          9 7 1 4 -1.</_>
        <_>
          9 9 1 2 2.</_></rects>
      <tilted>0</tilted></_>
    <_>
      <rects>
        <_>
          9 7 4 4 -1.</_>
        <_>
          9 7 2 2 2.</_>
        <_>
          11 9 2 2 2.</_></rects>
      <tilted>0</tilted></_>
    <_>
      <rects>
        <_>
          9 10 8 6 -1.</_>
        <_>
          9 10 4 3 2.</_>
        <_>
          13 13 4 3 2.</_></rects>
      <tilted>0</tilted></_>
    <_>
      <rects>
        <_>
          9 12 4 6 -1.</_>
        <_>
          9 14 4 2 3.</_></rects>
      <tilted>0</tilted></_>
    <_>
      <rects>
        <_>
          9 14 5 6 -1.</_>
        <_>
          9 17 5 3 2.</_></rects>
      <tilted>0</tilted></_>
    <_>
      <rects>
        <_>
          10 2 3 3 -1.</_>
        <_>
          10 3 3 1 3.</_></rects>
      <tilted>0</tilted></_>
    <_>
      <rects>
        <_>
          10 2 5 8 -1.</_>
        <_>
          10 6 5 4 2.</_></rects>
      <tilted>0</tilted></_>
    <_>
      <rects>
        <_>
          10 3 3 1 -1.</_>
        <_>
          11 3 1 1 3.</_></rects>
      <tilted>0</tilted></_>
    <_>
      <rects>
        <_>
          10 3 8 4 -1.</_>
        <_>
          10 3 4 2 2.</_>
        <_>
          14 5 4 2 2.</_></rects>
      <tilted>0</tilted></_>
    <_>
      <rects>
        <_>
          10 9 3 1 -1.</_>
        <_>
          11 9 1 1 3.</_></rects>
      <tilted>0</tilted></_>
    <_>
      <rects>
        <_>
          10 9 6 1 -1.</_>
        <_>
          12 9 2 1 3.</_></rects>
      <tilted>0</tilted></_>
    <_>
      <rects>
        <_>
          10 10 3 1 -1.</_>
        <_>
          11 10 1 1 3.</_></rects>
      <tilted>0</tilted></_>
    <_>
      <rects>
        <_>
          10 13 3 2 -1.</_>
        <_>
          11 13 1 2 3.</_></rects>
      <tilted>0</tilted></_>
    <_>
      <rects>
        <_>
          11 4 9 10 -1.</_>
        <_>
          14 4 3 10 3.</_></rects>
      <tilted>0</tilted></_>
    <_>
      <rects>
        <_>
          11 5 4 8 -1.</_>
        <_>
          13 5 2 8 2.</_></rects>
      <tilted>0</tilted></_>
    <_>
      <rects>
        <_>
          11 11 2 6 -1.</_>
        <_>
          11 11 1 3 2.</_>
        <_>
          12 14 1 3 2.</_></rects>
      <tilted>0</tilted></_>
    <_>
      <rects>
        <_>
          12 2 1 8 -1.</_>
        <_>
          12 6 1 4 2.</_></rects>
      <tilted>0</tilted></_>
    <_>
      <rects>
        <_>
          12 4 1 2 -1.</_>
        <_>
          12 5 1 1 2.</_></rects>
      <tilted>0</tilted></_>
    <_>
      <rects>
        <_>
          12 8 4 2 -1.</_>
        <_>
          14 8 2 2 2.</_></rects>
      <tilted>0</tilted></_>
    <_>
      <rects>
        <_>
          12 9 6 5 -1.</_>
        <_>
          14 9 2 5 3.</_></rects>
      <tilted>0</tilted></_>
    <_>
      <rects>
        <_>
          12 10 4 1 -1.</_>
        <_>
          14 10 2 1 2.</_></rects>
      <tilted>0</tilted></_>
    <_>
      <rects>
        <_>
          12 12 6 1 -1.</_>
        <_>
          14 12 2 1 3.</_></rects>
      <tilted>0</tilted></_>
    <_>
      <rects>
        <_>
          12 16 3 2 -1.</_>
        <_>
          12 17 3 1 2.</_></rects>
      <tilted>0</tilted></_>
    <_>
      <rects>
        <_>
          13 1 2 3 -1.</_>
        <_>
          13 2 2 1 3.</_></rects>
      <tilted>0</tilted></_>
    <_>
      <rects>
        <_>
          13 5 6 5 -1.</_>
        <_>
          15 5 2 5 3.</_></rects>
      <tilted>0</tilted></_>
    <_>
      <rects>
        <_>
          13 9 4 6 -1.</_>
        <_>
          13 9 2 3 2.</_>
        <_>
          15 12 2 3 2.</_></rects>
      <tilted>0</tilted></_>
    <_>
      <rects>
        <_>
          13 10 4 1 -1.</_>
        <_>
          15 10 2 1 2.</_></rects>
      <tilted>0</tilted></_>
    <_>
      <rects>
        <_>
          14 4 2 8 -1.</_>
        <_>
          14 8 2 4 2.</_></rects>
      <tilted>0</tilted></_>
    <_>
      <rects>
        <_>
          14 4 4 6 -1.</_>
        <_>
          14 7 4 3 2.</_></rects>
      <tilted>0</tilted></_>
    <_>
      <rects>
        <_>
          14 5 1 10 -1.</_>
        <_>
          14 10 1 5 2.</_></rects>
      <tilted>0</tilted></_>
    <_>
      <rects>
        <_>
          14 6 1 8 -1.</_>
        <_>
          14 10 1 4 2.</_></rects>
      <tilted>0</tilted></_>
    <_>
      <rects>
        <_>
          14 6 6 3 -1.</_>
        <_>
          16 6 2 3 3.</_></rects>
      <tilted>0</tilted></_>
    <_>
      <rects>
        <_>
          14 6 3 3 -1.</_>
        <_>
          14 7 3 1 3.</_></rects>
      <tilted>0</tilted></_>
    <_>
      <rects>
        <_>
          14 8 1 6 -1.</_>
        <_>
          14 11 1 3 2.</_></rects>
      <tilted>0</tilted></_>
    <_>
      <rects>
        <_>
          14 9 3 1 -1.</_>
        <_>
          15 9 1 1 3.</_></rects>
      <tilted>0</tilted></_>
    <_>
      <rects>
        <_>
          14 13 2 6 -1.</_>
        <_>
          14 13 1 3 2.</_>
        <_>
          15 16 1 3 2.</_></rects>
      <tilted>0</tilted></_>
    <_>
      <rects>
        <_>
          15 5 1 6 -1.</_>
        <_>
          15 8 1 3 2.</_></rects>
      <tilted>0</tilted></_>
    <_>
      <rects>
        <_>
          15 6 1 6 -1.</_>
        <_>
          15 9 1 3 2.</_></rects>
      <tilted>0</tilted></_>
    <_>
      <rects>
        <_>
          15 6 2 5 -1.</_>
        <_>
          16 6 1 5 2.</_></rects>
      <tilted>0</tilted></_>
    <_>
      <rects>
        <_>
          15 7 2 3 -1.</_>
        <_>
          15 8 2 1 3.</_></rects>
      <tilted>0</tilted></_>
    <_>
      <rects>
        <_>
          16 3 1 9 -1.</_>
        <_>
          16 6 1 3 3.</_></rects>
      <tilted>0</tilted></_>
    <_>
      <rects>
        <_>
          16 3 2 9 -1.</_>
        <_>
          16 6 2 3 3.</_></rects>
      <tilted>0</tilted></_>
    <_>
      <rects>
        <_>
          16 5 4 7 -1.</_>
        <_>
          18 5 2 7 2.</_></rects>
      <tilted>0</tilted></_>
    <_>
      <rects>
        <_>
          16 7 3 1 -1.</_>
        <_>
          17 7 1 1 3.</_></rects>
      <tilted>0</tilted></_>
    <_>
      <rects>
        <_>
          17 4 2 8 -1.</_>
        <_>
          18 4 1 8 2.</_></rects>
      <tilted>0</tilted></_>
    <_>
      <rects>
        <_>
          17 6 2 3 -1.</_>
        <_>
          18 6 1 3 2.</_></rects>
      <tilted>0</tilted></_>
    <_>
      <rects>
        <_>
          18 7 2 4 -1.</_>
        <_>
          19 7 1 4 2.</_></rects>
      <tilted>0</tilted></_></features></cascade>
</opencv_storage>
